<?xml version="1.0"?>
<opencv_storage>
<stage11>
  <maxWeakCount>52</maxWeakCount>
  <stageThreshold>-6.5774321556091309e-01</stageThreshold>
  <weakClassifiers>
    <_>
      <internalNodes>
        0 -1 49025 -7.3918695561587811e-03</internalNodes>
      <leafValues>
        8.6758893728256226e-01 4.3939393758773804e-01</leafValues></_>
    <_>
      <internalNodes>
        0 -1 122707 -1.9998401403427124e-02</internalNodes>
      <leafValues>
        7.8561425209045410e-01 -1.1992367915809155e-02</leafValues></_>
    <_>
      <internalNodes>
        0 -1 159501 1.8127997172996402e-03</internalNodes>
      <leafValues>
        -1.2703378498554230e-01 5.9551411867141724e-01</leafValues></_>
    <_>
      <internalNodes>
        0 -1 82773 -4.6470873057842255e-03</internalNodes>
      <leafValues>
        3.7507027387619019e-01 -1.9428421556949615e-01</leafValues></_>
    <_>
      <internalNodes>
        0 -1 159443 -2.7489324565976858e-03</internalNodes>
      <leafValues>
        4.3039843440055847e-01 -1.3365209102630615e-01</leafValues></_>
    <_>
      <internalNodes>
        0 -1 71464 -1.2477004900574684e-02</internalNodes>
      <leafValues>
        5.1513743400573730e-01 -9.8837591707706451e-02</leafValues></_>
    <_>
      <internalNodes>
        0 -1 69598 -1.0935544967651367e-02</internalNodes>
      <leafValues>
        4.5146557688713074e-01 -1.4517168700695038e-01</leafValues></_>
    <_>
      <internalNodes>
        0 -1 52502 -1.1738060973584652e-02</internalNodes>
      <leafValues>
        -4.9961242079734802e-01 1.0758153349161148e-01</leafValues></_>
    <_>
      <internalNodes>
        0 -1 71934 1.5035090968012810e-02</internalNodes>
      <leafValues>
        1.3143710792064667e-01 -4.6293058991432190e-01</leafValues></_>
    <_>
      <internalNodes>
        0 -1 162142 -3.2230862416327000e-03</internalNodes>
      <leafValues>
        -4.2221212387084961e-01 9.7548320889472961e-02</leafValues></_>
    <_>
      <internalNodes>
        0 -1 55928 -5.8307789266109467e-02</internalNodes>
      <leafValues>
        -4.3724796175956726e-01 1.0393129289150238e-01</leafValues></_>
    <_>
      <internalNodes>
        0 -1 92153 6.0555052012205124e-02</internalNodes>
      <leafValues>
        7.1275569498538971e-02 -6.2969511747360229e-01</leafValues></_>
    <_>
      <internalNodes>
        0 -1 160858 3.2473224564455450e-04</internalNodes>
      <leafValues>
        1.2400460988283157e-01 -3.5127142071723938e-01</leafValues></_>
    <_>
      <internalNodes>
        0 -1 149419 -1.3414627872407436e-02</internalNodes>
      <leafValues>
        5.6723690032958984e-01 -8.3213083446025848e-02</leafValues></_>
    <_>
      <internalNodes>
        0 -1 139884 -2.9943032190203667e-02</internalNodes>
      <leafValues>
        3.1937229633331299e-01 -1.5640947222709656e-01</leafValues></_>
    <_>
      <internalNodes>
        0 -1 143842 -4.2623993940651417e-03</internalNodes>
      <leafValues>
        7.8271681070327759e-01 -5.8057561516761780e-02</leafValues></_>
    <_>
      <internalNodes>
        0 -1 36645 1.1668309569358826e-02</internalNodes>
      <leafValues>
        -6.1399251222610474e-02 6.0826522111892700e-01</leafValues></_>
    <_>
      <internalNodes>
        0 -1 61304 5.6177214719355106e-03</internalNodes>
      <leafValues>
        6.4802587032318115e-02 -7.5558197498321533e-01</leafValues></_>
    <_>
      <internalNodes>
        0 -1 71366 2.1046191453933716e-02</internalNodes>
      <leafValues>
        -1.0223128646612167e-01 5.1042574644088745e-01</leafValues></_>
    <_>
      <internalNodes>
        0 -1 147698 -1.5977765433490276e-03</internalNodes>
      <leafValues>
        7.8929948806762695e-01 -4.5908898115158081e-02</leafValues></_>
    <_>
      <internalNodes>
        0 -1 108916 -1.9705537706613541e-02</internalNodes>
      <leafValues>
        3.1920480728149414e-01 -1.3076287508010864e-01</leafValues></_>
    <_>
      <internalNodes>
        0 -1 151884 7.5508491136133671e-04</internalNodes>
      <leafValues>
        9.0590521693229675e-02 -4.8142844438552856e-01</leafValues></_>
    <_>
      <internalNodes>
        0 -1 106780 9.0776226716116071e-04</internalNodes>
      <leafValues>
        -1.9910646975040436e-01 2.3626358807086945e-01</leafValues></_>
    <_>
      <internalNodes>
        0 -1 106597 -5.3429724648594856e-03</internalNodes>
      <leafValues>
        -3.9722040295600891e-01 1.0671376436948776e-01</leafValues></_>
    <_>
      <internalNodes>
        0 -1 114299 4.6087306691333652e-04</internalNodes>
      <leafValues>
        1.3806000351905823e-01 -3.4373039007186890e-01</leafValues></_>
    <_>
      <internalNodes>
        0 -1 29250 -6.7029885947704315e-02</internalNodes>
      <leafValues>
        -6.3257467746734619e-01 6.9085493683815002e-02</leafValues></_>
    <_>
      <internalNodes>
        0 -1 39853 -1.3633774593472481e-02</internalNodes>
      <leafValues>
        -7.5406682491302490e-01 5.1509432494640350e-02</leafValues></_>
    <_>
      <internalNodes>
        0 -1 98316 1.9553299993276596e-02</internalNodes>
      <leafValues>
        -7.0610806345939636e-02 7.9081022739410400e-01</leafValues></_>
    <_>
      <internalNodes>
        0 -1 108586 -3.3140543382614851e-04</internalNodes>
      <leafValues>
        -2.9016613960266113e-01 1.5878085792064667e-01</leafValues></_>
    <_>
      <internalNodes>
        0 -1 69358 1.0282276198267937e-02</internalNodes>
      <leafValues>
        -1.3062877953052521e-01 3.4270703792572021e-01</leafValues></_>
    <_>
      <internalNodes>
        0 -1 87640 3.5767026245594025e-02</internalNodes>
      <leafValues>
        -7.1599699556827545e-02 6.4332604408264160e-01</leafValues></_>
    <_>
      <internalNodes>
        0 -1 95300 -1.4002602547407150e-03</internalNodes>
      <leafValues>
        2.7804389595985413e-01 -2.0156115293502808e-01</leafValues></_>
    <_>
      <internalNodes>
        0 -1 147332 4.1101099923253059e-03</internalNodes>
      <leafValues>
        -1.1740138381719589e-01 3.5595515370368958e-01</leafValues></_>
    <_>
      <internalNodes>
        0 -1 34905 -6.7126040812581778e-04</internalNodes>
      <leafValues>
        -5.4174405336380005e-01 8.1749550998210907e-02</leafValues></_>
    <_>
      <internalNodes>
        0 -1 142463 3.6365967243909836e-03</internalNodes>
      <leafValues>
        -1.6565755009651184e-01 2.5421622395515442e-01</leafValues></_>
    <_>
      <internalNodes>
        0 -1 100368 3.3554602414369583e-02</internalNodes>
      <leafValues>
        -5.6981347501277924e-02 7.1399468183517456e-01</leafValues></_>
    <_>
      <internalNodes>
        0 -1 107187 2.4210887029767036e-02</internalNodes>
      <leafValues>
        -9.5083139836788177e-02 4.5368355512619019e-01</leafValues></_>
    <_>
      <internalNodes>
        0 -1 721 5.5086106061935425e-02</internalNodes>
      <leafValues>
        -1.2302189320325851e-01 3.4899532794952393e-01</leafValues></_>
    <_>
      <internalNodes>
        0 -1 69977 9.8833823576569557e-03</internalNodes>
      <leafValues>
        6.3745230436325073e-02 -7.2435712814331055e-01</leafValues></_>
    <_>
      <internalNodes>
        0 -1 89680 5.8627803809940815e-04</internalNodes>
      <leafValues>
        -1.3246092200279236e-01 3.8027361035346985e-01</leafValues></_>
    <_>
      <internalNodes>
        0 -1 36849 -1.7926027998328209e-02</internalNodes>
      <leafValues>
        -4.5301535725593567e-01 1.0610567778348923e-01</leafValues></_>
    <_>
      <internalNodes>
        0 -1 10433 5.7468142360448837e-02</internalNodes>
      <leafValues>
        1.1206127703189850e-01 -4.0747040510177612e-01</leafValues></_>
    <_>
      <internalNodes>
        0 -1 152979 -2.3447428829967976e-03</internalNodes>
      <leafValues>
        3.2606342434883118e-01 -1.4341424405574799e-01</leafValues></_>
    <_>
      <internalNodes>
        0 -1 100569 -4.5812958851456642e-03</internalNodes>
      <leafValues>
        5.4852366447448730e-01 -7.9547353088855743e-02</leafValues></_>
    <_>
      <internalNodes>
        0 -1 94226 -8.0779343843460083e-03</internalNodes>
      <leafValues>
        6.2136584520339966e-01 -5.7994280010461807e-02</leafValues></_>
    <_>
      <internalNodes>
        0 -1 45095 -2.3612052202224731e-02</internalNodes>
      <leafValues>
        3.6258205771446228e-01 -1.1044429242610931e-01</leafValues></_>
    <_>
      <internalNodes>
        0 -1 21998 4.8098608851432800e-02</internalNodes>
      <leafValues>
        1.3315112888813019e-01 -3.2296714186668396e-01</leafValues></_>
    <_>
      <internalNodes>
        0 -1 136482 -2.6758684543892741e-04</internalNodes>
      <leafValues>
        -2.8737071156501770e-01 1.4291551709175110e-01</leafValues></_>
    <_>
      <internalNodes>
        0 -1 90322 -1.1168268322944641e-01</internalNodes>
      <leafValues>
        -4.7597634792327881e-01 7.9165056347846985e-02</leafValues></_>
    <_>
      <internalNodes>
        0 -1 76273 8.9075161668006331e-05</internalNodes>
      <leafValues>
        1.5613824129104614e-01 -2.5616165995597839e-01</leafValues></_>
    <_>
      <internalNodes>
        0 -1 108391 5.3910270333290100e-02</internalNodes>
      <leafValues>
        1.0631874203681946e-01 -4.2366048693656921e-01</leafValues></_>
    <_>
      <internalNodes>
        0 -1 153676 -4.0103956125676632e-03</internalNodes>
      <leafValues>
        -2.4924087524414063e-01 1.5386258065700531e-01</leafValues></_></weakClassifiers></stage11>
</opencv_storage>
