<?xml version="1.0"?>
<opencv_storage>
<stage36>
  <maxWeakCount>55</maxWeakCount>
  <stageThreshold>-9.9015992879867554e-01</stageThreshold>
  <weakClassifiers>
    <_>
      <internalNodes>
        0 -1 158408 -6.2740296125411987e-03</internalNodes>
      <leafValues>
        8.5151517391204834e-01 1.8717949092388153e-01</leafValues></_>
    <_>
      <internalNodes>
        0 -1 128026 1.0345520451664925e-02</internalNodes>
      <leafValues>
        -1.0536711663007736e-01 6.3911968469619751e-01</leafValues></_>
    <_>
      <internalNodes>
        0 -1 114346 5.3835045546293259e-03</internalNodes>
      <leafValues>
        -1.2613928318023682e-01 5.0480240583419800e-01</leafValues></_>
    <_>
      <internalNodes>
        0 -1 58247 2.2200210019946098e-02</internalNodes>
      <leafValues>
        -1.8023042380809784e-01 4.5711895823478699e-01</leafValues></_>
    <_>
      <internalNodes>
        0 -1 200 -4.2028285562992096e-02</internalNodes>
      <leafValues>
        6.3543772697448730e-01 -7.6840169727802277e-02</leafValues></_>
    <_>
      <internalNodes>
        0 -1 87158 -1.7528815660625696e-03</internalNodes>
      <leafValues>
        5.3448194265365601e-01 -1.1754941940307617e-01</leafValues></_>
    <_>
      <internalNodes>
        0 -1 149644 2.3466702550649643e-03</internalNodes>
      <leafValues>
        -8.0432064831256866e-02 6.6613095998764038e-01</leafValues></_>
    <_>
      <internalNodes>
        0 -1 5873 -8.5428263992071152e-03</internalNodes>
      <leafValues>
        6.9975250959396362e-01 -9.0035691857337952e-02</leafValues></_>
    <_>
      <internalNodes>
        0 -1 151732 1.3466458767652512e-03</internalNodes>
      <leafValues>
        -5.0666239112615585e-02 6.3947147130966187e-01</leafValues></_>
    <_>
      <internalNodes>
        0 -1 87158 5.2246949635446072e-03</internalNodes>
      <leafValues>
        -4.4774003326892853e-02 9.3071264028549194e-01</leafValues></_>
    <_>
      <internalNodes>
        0 -1 143831 -4.7481519868597388e-04</internalNodes>
      <leafValues>
        -2.8166377544403076e-01 1.8054375052452087e-01</leafValues></_>
    <_>
      <internalNodes>
        0 -1 91969 1.7459304071962833e-03</internalNodes>
      <leafValues>
        -1.7581598460674286e-01 2.4657742679119110e-01</leafValues></_>
    <_>
      <internalNodes>
        0 -1 137094 -1.2181087397038937e-02</internalNodes>
      <leafValues>
        -2.0285604894161224e-01 2.1246235072612762e-01</leafValues></_>
    <_>
      <internalNodes>
        0 -1 143330 -2.7375178411602974e-02</internalNodes>
      <leafValues>
        1.2661714851856232e-01 -3.6568874120712280e-01</leafValues></_>
    <_>
      <internalNodes>
        0 -1 89775 -3.1512659043073654e-03</internalNodes>
      <leafValues>
        5.1736438274383545e-01 -8.7303332984447479e-02</leafValues></_>
    <_>
      <internalNodes>
        0 -1 49437 -1.9194268679711968e-04</internalNodes>
      <leafValues>
        2.8431585431098938e-01 -1.4555762708187103e-01</leafValues></_>
    <_>
      <internalNodes>
        0 -1 60547 -1.9998036324977875e-02</internalNodes>
      <leafValues>
        3.9449229836463928e-01 -1.1396124958992004e-01</leafValues></_>
    <_>
      <internalNodes>
        0 -1 51392 -1.1232532560825348e-01</internalNodes>
      <leafValues>
        -2.2408272325992584e-01 2.0007875561714172e-01</leafValues></_>
    <_>
      <internalNodes>
        0 -1 37270 -6.7162260413169861e-02</internalNodes>
      <leafValues>
        1.5857012569904327e-01 -3.1266108155250549e-01</leafValues></_>
    <_>
      <internalNodes>
        0 -1 155801 3.5714441910386086e-03</internalNodes>
      <leafValues>
        -8.1614509224891663e-02 5.9310847520828247e-01</leafValues></_>
    <_>
      <internalNodes>
        0 -1 109124 1.5639337943866849e-03</internalNodes>
      <leafValues>
        -3.5463701933622360e-02 9.1769301891326904e-01</leafValues></_>
    <_>
      <internalNodes>
        0 -1 115032 -2.6755932718515396e-02</internalNodes>
      <leafValues>
        -8.1831479072570801e-01 7.1832530200481415e-02</leafValues></_>
    <_>
      <internalNodes>
        0 -1 32602 8.0256501678377390e-04</internalNodes>
      <leafValues>
        1.8449401855468750e-01 -2.4390017986297607e-01</leafValues></_>
    <_>
      <internalNodes>
        0 -1 9650 3.1862636096775532e-03</internalNodes>
      <leafValues>
        -9.5524355769157410e-02 4.7254654765129089e-01</leafValues></_>
    <_>
      <internalNodes>
        0 -1 114114 9.1052544303238392e-04</internalNodes>
      <leafValues>
        1.7256020009517670e-01 -2.6114031672477722e-01</leafValues></_>
    <_>
      <internalNodes>
        0 -1 161881 -2.6088221929967403e-03</internalNodes>
      <leafValues>
        5.5681008100509644e-01 -8.4705866873264313e-02</leafValues></_>
    <_>
      <internalNodes>
        0 -1 161881 7.8023690730333328e-04</internalNodes>
      <leafValues>
        -1.2620943784713745e-01 3.2795727252960205e-01</leafValues></_>
    <_>
      <internalNodes>
        0 -1 161147 5.4998585255816579e-04</internalNodes>
      <leafValues>
        1.5465867519378662e-01 -2.8152096271514893e-01</leafValues></_>
    <_>
      <internalNodes>
        0 -1 161079 5.0399210304021835e-03</internalNodes>
      <leafValues>
        -1.0660196095705032e-01 4.1213688254356384e-01</leafValues></_>
    <_>
      <internalNodes>
        0 -1 76833 5.3467621910385787e-05</internalNodes>
      <leafValues>
        -2.0053263008594513e-01 2.4926975369453430e-01</leafValues></_>
    <_>
      <internalNodes>
        0 -1 11349 -6.5141948871314526e-03</internalNodes>
      <leafValues>
        -2.9007750749588013e-01 1.4675474166870117e-01</leafValues></_>
    <_>
      <internalNodes>
        0 -1 48613 -8.4447179688140750e-04</internalNodes>
      <leafValues>
        2.8120470046997070e-01 -1.7061683535575867e-01</leafValues></_>
    <_>
      <internalNodes>
        0 -1 127316 8.0189984291791916e-03</internalNodes>
      <leafValues>
        -5.8062620460987091e-02 7.4000453948974609e-01</leafValues></_>
    <_>
      <internalNodes>
        0 -1 22724 5.9648341266438365e-04</internalNodes>
      <leafValues>
        1.7068557441234589e-01 -2.7986010909080505e-01</leafValues></_>
    <_>
      <internalNodes>
        0 -1 97269 1.6124786809086800e-02</internalNodes>
      <leafValues>
        9.8406024277210236e-02 -5.2783381938934326e-01</leafValues></_>
    <_>
      <internalNodes>
        0 -1 5170 8.5096303373575211e-03</internalNodes>
      <leafValues>
        -9.4562649726867676e-02 6.9162917137145996e-01</leafValues></_>
    <_>
      <internalNodes>
        0 -1 32353 -9.0295702219009399e-02</internalNodes>
      <leafValues>
        -5.0014716386795044e-01 1.0295015573501587e-01</leafValues></_>
    <_>
      <internalNodes>
        0 -1 13801 -2.6755517348647118e-02</internalNodes>
      <leafValues>
        5.6684261560440063e-01 -8.2839496433734894e-02</leafValues></_>
    <_>
      <internalNodes>
        0 -1 30933 6.9860592484474182e-02</internalNodes>
      <leafValues>
        1.2710176408290863e-01 -3.4289583563804626e-01</leafValues></_>
    <_>
      <internalNodes>
        0 -1 145421 -1.8439266830682755e-02</internalNodes>
      <leafValues>
        7.1049326658248901e-01 -6.7625649273395538e-02</leafValues></_>
    <_>
      <internalNodes>
        0 -1 128918 -9.3631133437156677e-02</internalNodes>
      <leafValues>
        -3.2379105687141418e-02 8.5838449001312256e-01</leafValues></_>
    <_>
      <internalNodes>
        0 -1 25265 -3.2910327718127519e-05</internalNodes>
      <leafValues>
        2.8350350260734558e-01 -1.4759385585784912e-01</leafValues></_>
    <_>
      <internalNodes>
        0 -1 46056 9.0265572071075439e-02</internalNodes>
      <leafValues>
        -4.6815298497676849e-02 7.4418687820434570e-01</leafValues></_>
    <_>
      <internalNodes>
        0 -1 99697 2.3280115798115730e-02</internalNodes>
      <leafValues>
        -1.5640605986118317e-01 2.7410396933555603e-01</leafValues></_>
    <_>
      <internalNodes>
        0 -1 59129 -9.9549852311611176e-02</internalNodes>
      <leafValues>
        5.2291238307952881e-01 -7.9765826463699341e-02</leafValues></_>
    <_>
      <internalNodes>
        0 -1 68813 4.1815834119915962e-03</internalNodes>
      <leafValues>
        -1.5138450264930725e-01 3.0169856548309326e-01</leafValues></_>
    <_>
      <internalNodes>
        0 -1 23196 -4.0372842922806740e-03</internalNodes>
      <leafValues>
        5.9014737606048584e-01 -8.1264711916446686e-02</leafValues></_>
    <_>
      <internalNodes>
        0 -1 112494 -8.1627292092889547e-04</internalNodes>
      <leafValues>
        5.0298553705215454e-01 -1.0076278448104858e-01</leafValues></_>
    <_>
      <internalNodes>
        0 -1 130173 -1.1603219900280237e-03</internalNodes>
      <leafValues>
        7.2105574607849121e-01 -5.8492105454206467e-02</leafValues></_>
    <_>
      <internalNodes>
        0 -1 147695 1.1586400796659291e-04</internalNodes>
      <leafValues>
        2.0064537227153778e-01 -2.4156852066516876e-01</leafValues></_>
    <_>
      <internalNodes>
        0 -1 35935 2.2041820921003819e-03</internalNodes>
      <leafValues>
        7.0693992078304291e-02 -6.6212987899780273e-01</leafValues></_>
    <_>
      <internalNodes>
        0 -1 85384 -5.2712704055011272e-03</internalNodes>
      <leafValues>
        7.8434997797012329e-01 -6.4753338694572449e-02</leafValues></_>
    <_>
      <internalNodes>
        0 -1 138370 -7.5345123186707497e-03</internalNodes>
      <leafValues>
        -3.3675566315650940e-01 1.4348883926868439e-01</leafValues></_>
    <_>
      <internalNodes>
        0 -1 159721 -2.4206619709730148e-03</internalNodes>
      <leafValues>
        -5.8630311489105225e-01 7.2036296129226685e-02</leafValues></_>
    <_>
      <internalNodes>
        0 -1 46730 7.7485725283622742e-02</internalNodes>
      <leafValues>
        -6.5759271383285522e-02 7.0126324892044067e-01</leafValues></_></weakClassifiers></stage36>
</opencv_storage>
