<?xml version="1.0"?>
<opencv_storage>
<stage38>
  <maxWeakCount>10</maxWeakCount>
  <stageThreshold>-1.1793255805969238e+00</stageThreshold>
  <weakClassifiers>
    <_>
      <internalNodes>
        0 -1 16878 -3.4471036633476615e-04</internalNodes>
      <leafValues>
        -1.3541004061698914e-01 8.5003501176834106e-01</leafValues></_>
    <_>
      <internalNodes>
        0 -1 80242 7.7180396765470505e-03</internalNodes>
      <leafValues>
        -1.9793270528316498e-01 9.3426555395126343e-01</leafValues></_>
    <_>
      <internalNodes>
        0 -1 34427 -2.7839612448588014e-04</internalNodes>
      <leafValues>
        -4.6234753727912903e-01 5.5595856904983521e-01</leafValues></_>
    <_>
      <internalNodes>
        0 -1 155160 -6.7529635271057487e-04</internalNodes>
      <leafValues>
        1. -2.7484843134880066e-01</leafValues></_>
    <_>
      <internalNodes>
        0 -1 160997 4.9774255603551865e-04</internalNodes>
      <leafValues>
        -3.3721798658370972e-01 6.3278687000274658e-01</leafValues></_>
    <_>
      <internalNodes>
        0 -1 130677 1.1627154424786568e-02</internalNodes>
      <leafValues>
        4.8502960801124573e-01 -5.4072999954223633e-01</leafValues></_>
    <_>
      <internalNodes>
        0 -1 75747 -2.6260404847562313e-03</internalNodes>
      <leafValues>
        9.3525534868240356e-01 -2.9263436794281006e-01</leafValues></_>
    <_>
      <internalNodes>
        0 -1 12037 -1.1032507754862309e-03</internalNodes>
      <leafValues>
        1. -1.6640649735927582e-01</leafValues></_>
    <_>
      <internalNodes>
        0 -1 102870 2.0936969667673111e-03</internalNodes>
      <leafValues>
        4.6670094132423401e-01 -4.8988416790962219e-01</leafValues></_>
    <_>
      <internalNodes>
        0 -1 87550 -6.1473122332245111e-04</internalNodes>
      <leafValues>
        8.2191294431686401e-01 -2.9311856627464294e-01</leafValues></_></weakClassifiers></stage38>
</opencv_storage>
