<?xml version="1.0"?>
<opencv_storage>
<stage1>
  <maxWeakCount>29</maxWeakCount>
  <stageThreshold>-7.1329396963119507e-01</stageThreshold>
  <weakClassifiers>
    <_>
      <internalNodes>
        0 -1 159537 -2.7554756030440331e-02</internalNodes>
      <leafValues>
        -1.1026615649461746e-01 7.3773878812789917e-01</leafValues></_>
    <_>
      <internalNodes>
        0 -1 156963 1.1956511065363884e-02</internalNodes>
      <leafValues>
        -1.0632790625095367e-01 7.7925300598144531e-01</leafValues></_>
    <_>
      <internalNodes>
        0 -1 89806 8.0975145101547241e-03</internalNodes>
      <leafValues>
        -1.5238578617572784e-01 6.8575859069824219e-01</leafValues></_>
    <_>
      <internalNodes>
        0 -1 40821 1.3651609420776367e-02</internalNodes>
      <leafValues>
        -1.8271389603614807e-01 6.6067314147949219e-01</leafValues></_>
    <_>
      <internalNodes>
        0 -1 21635 -1.5180988237261772e-02</internalNodes>
      <leafValues>
        6.6485536098480225e-01 -1.2190412729978561e-01</leafValues></_>
    <_>
      <internalNodes>
        0 -1 43485 -1.1386027187108994e-01</internalNodes>
      <leafValues>
        -7.2273707389831543e-01 1.2355273962020874e-01</leafValues></_>
    <_>
      <internalNodes>
        0 -1 46227 4.0439419448375702e-02</internalNodes>
      <leafValues>
        -1.3326938450336456e-01 7.5315600633621216e-01</leafValues></_>
    <_>
      <internalNodes>
        0 -1 69596 6.6434401087462902e-03</internalNodes>
      <leafValues>
        -1.1838135868310928e-01 6.6855806112289429e-01</leafValues></_>
    <_>
      <internalNodes>
        0 -1 10645 -2.2670403122901917e-02</internalNodes>
      <leafValues>
        6.8585306406021118e-01 -1.2831346690654755e-01</leafValues></_>
    <_>
      <internalNodes>
        0 -1 114807 -2.6879131793975830e-02</internalNodes>
      <leafValues>
        4.4897854328155518e-01 -1.7057149112224579e-01</leafValues></_>
    <_>
      <internalNodes>
        0 -1 27836 -1.1252785101532936e-02</internalNodes>
      <leafValues>
        5.9448260068893433e-01 -1.4088498055934906e-01</leafValues></_>
    <_>
      <internalNodes>
        0 -1 153078 -3.6168288439512253e-02</internalNodes>
      <leafValues>
        5.1738005876541138e-01 -1.6807135939598083e-01</leafValues></_>
    <_>
      <internalNodes>
        0 -1 61783 8.1018105149269104e-02</internalNodes>
      <leafValues>
        1.9162110984325409e-01 -5.4757112264633179e-01</leafValues></_>
    <_>
      <internalNodes>
        0 -1 139507 5.0858803093433380e-02</internalNodes>
      <leafValues>
        -1.4082981646060944e-01 6.6880208253860474e-01</leafValues></_>
    <_>
      <internalNodes>
        0 -1 139820 -3.7968032062053680e-02</internalNodes>
      <leafValues>
        6.1479359865188599e-01 -1.2563590705394745e-01</leafValues></_>
    <_>
      <internalNodes>
        0 -1 21651 -2.5272478815168142e-03</internalNodes>
      <leafValues>
        -7.6499742269515991e-01 1.2889993190765381e-01</leafValues></_>
    <_>
      <internalNodes>
        0 -1 34985 2.7632205747067928e-03</internalNodes>
      <leafValues>
        8.0925121903419495e-02 -7.5334686040878296e-01</leafValues></_>
    <_>
      <internalNodes>
        0 -1 160654 8.0255381762981415e-03</internalNodes>
      <leafValues>
        -1.4524918794631958e-01 5.8584946393966675e-01</leafValues></_>
    <_>
      <internalNodes>
        0 -1 49220 -1.6568332910537720e-02</internalNodes>
      <leafValues>
        -8.5211165249347687e-02 8.0364841222763062e-01</leafValues></_>
    <_>
      <internalNodes>
        0 -1 81330 -1.6518194228410721e-02</internalNodes>
      <leafValues>
        5.1215237379074097e-01 -1.3582348823547363e-01</leafValues></_>
    <_>
      <internalNodes>
        0 -1 51064 5.7324633002281189e-02</internalNodes>
      <leafValues>
        -1.8400910496711731e-01 4.2644080519676208e-01</leafValues></_>
    <_>
      <internalNodes>
        0 -1 158993 -6.5436991862952709e-03</internalNodes>
      <leafValues>
        -5.9099757671356201e-01 1.4047074317932129e-01</leafValues></_>
    <_>
      <internalNodes>
        0 -1 47465 -5.5649448186159134e-03</internalNodes>
      <leafValues>
        8.7205904722213745e-01 -9.2790655791759491e-02</leafValues></_>
    <_>
      <internalNodes>
        0 -1 135195 1.7907252535223961e-02</internalNodes>
      <leafValues>
        -9.3400873243808746e-02 5.9774154424667358e-01</leafValues></_>
    <_>
      <internalNodes>
        0 -1 119600 -2.6395274326205254e-03</internalNodes>
      <leafValues>
        5.9970891475677490e-01 -1.1210707575082779e-01</leafValues></_>
    <_>
      <internalNodes>
        0 -1 123146 -1.7223222181200981e-02</internalNodes>
      <leafValues>
        3.8974192738533020e-01 -1.4854601025581360e-01</leafValues></_>
    <_>
      <internalNodes>
        0 -1 5620 -4.1490837931632996e-02</internalNodes>
      <leafValues>
        -6.4092057943344116e-01 1.1283604055643082e-01</leafValues></_>
    <_>
      <internalNodes>
        0 -1 63725 -2.3505326360464096e-02</internalNodes>
      <leafValues>
        6.2308162450790405e-01 -1.2494068592786789e-01</leafValues></_>
    <_>
      <internalNodes>
        0 -1 64988 8.7760053575038910e-03</internalNodes>
      <leafValues>
        -9.5948256552219391e-02 6.8284642696380615e-01</leafValues></_></weakClassifiers></stage1>
</opencv_storage>
