<?xml version="1.0"?>
<opencv_storage>
<stage31>
  <maxWeakCount>87</maxWeakCount>
  <stageThreshold>-9.0698671340942383e-01</stageThreshold>
  <weakClassifiers>
    <_>
      <internalNodes>
        0 -1 154973 6.7307390272617340e-03</internalNodes>
      <leafValues>
        1.5566265583038330e-01 7.3189187049865723e-01</leafValues></_>
    <_>
      <internalNodes>
        0 -1 36615 -2.3878803476691246e-03</internalNodes>
      <leafValues>
        5.1548159122467041e-01 -8.6165554821491241e-02</leafValues></_>
    <_>
      <internalNodes>
        0 -1 161226 5.2750911563634872e-03</internalNodes>
      <leafValues>
        1.5492756664752960e-01 -3.6467888951301575e-01</leafValues></_>
    <_>
      <internalNodes>
        0 -1 47465 -6.1571807600557804e-03</internalNodes>
      <leafValues>
        4.9160560965538025e-01 -1.2741895020008087e-01</leafValues></_>
    <_>
      <internalNodes>
        0 -1 19385 1.2938895821571350e-01</internalNodes>
      <leafValues>
        1.1528036743402481e-01 -4.6832159161567688e-01</leafValues></_>
    <_>
      <internalNodes>
        0 -1 34491 2.6380281895399094e-02</internalNodes>
      <leafValues>
        -9.8798811435699463e-02 3.8865053653717041e-01</leafValues></_>
    <_>
      <internalNodes>
        0 -1 35552 -8.8975522667169571e-03</internalNodes>
      <leafValues>
        -4.2811873555183411e-01 7.3115766048431396e-02</leafValues></_>
    <_>
      <internalNodes>
        0 -1 84924 3.7528984248638153e-03</internalNodes>
      <leafValues>
        1.1873698234558105e-01 -2.4813668429851532e-01</leafValues></_>
    <_>
      <internalNodes>
        0 -1 160533 -1.9889967516064644e-02</internalNodes>
      <leafValues>
        -3.5798910260200500e-01 1.0334265232086182e-01</leafValues></_>
    <_>
      <internalNodes>
        0 -1 17641 -3.3587813377380371e-02</internalNodes>
      <leafValues>
        4.2010942101478577e-01 -9.2469409108161926e-02</leafValues></_>
    <_>
      <internalNodes>
        0 -1 41842 -8.8039234280586243e-02</internalNodes>
      <leafValues>
        5.5235558748245239e-01 -5.4605714976787567e-02</leafValues></_>
    <_>
      <internalNodes>
        0 -1 115088 -8.1071499735116959e-03</internalNodes>
      <leafValues>
        3.7041077017784119e-01 -8.3930023014545441e-02</leafValues></_>
    <_>
      <internalNodes>
        0 -1 54705 -1.9546128809452057e-02</internalNodes>
      <leafValues>
        -3.7083911895751953e-01 9.3270488083362579e-02</leafValues></_>
    <_>
      <internalNodes>
        0 -1 47117 3.2861379440873861e-04</internalNodes>
      <leafValues>
        8.8439144194126129e-02 -2.9267922043800354e-01</leafValues></_>
    <_>
      <internalNodes>
        0 -1 128591 -6.0229189693927765e-04</internalNodes>
      <leafValues>
        2.7475461363792419e-01 -1.1737759411334991e-01</leafValues></_>
    <_>
      <internalNodes>
        0 -1 115287 6.3398526981472969e-03</internalNodes>
      <leafValues>
        -8.5596822202205658e-02 3.8482362031936646e-01</leafValues></_>
    <_>
      <internalNodes>
        0 -1 110116 -1.8501542217563838e-04</internalNodes>
      <leafValues>
        -2.3044465482234955e-01 1.1889443546533585e-01</leafValues></_>
    <_>
      <internalNodes>
        0 -1 98627 -1.6550861299037933e-02</internalNodes>
      <leafValues>
        5.2269321680068970e-01 -5.2708096802234650e-02</leafValues></_>
    <_>
      <internalNodes>
        0 -1 138715 -2.3955071810632944e-04</internalNodes>
      <leafValues>
        -1.7483159899711609e-01 1.5675389766693115e-01</leafValues></_>
    <_>
      <internalNodes>
        0 -1 157199 1.5583566855639219e-03</internalNodes>
      <leafValues>
        -1.3367393612861633e-01 2.6252090930938721e-01</leafValues></_>
    <_>
      <internalNodes>
        0 -1 95321 -7.2292938828468323e-02</internalNodes>
      <leafValues>
        9.2883723974227905e-01 -2.5520939379930496e-02</leafValues></_>
    <_>
      <internalNodes>
        0 -1 23344 -9.6173688769340515e-02</internalNodes>
      <leafValues>
        -7.0253551006317139e-01 4.6725172549486160e-02</leafValues></_>
    <_>
      <internalNodes>
        0 -1 67276 -5.0602164119482040e-03</internalNodes>
      <leafValues>
        1.9390554726123810e-01 -1.4022296667098999e-01</leafValues></_>
    <_>
      <internalNodes>
        0 -1 153266 -1.7215207219123840e-02</internalNodes>
      <leafValues>
        3.6903163790702820e-01 -6.8745233118534088e-02</leafValues></_>
    <_>
      <internalNodes>
        0 -1 161379 5.6368438526988029e-03</internalNodes>
      <leafValues>
        -1.2142016738653183e-01 2.2952131927013397e-01</leafValues></_>
    <_>
      <internalNodes>
        0 -1 155593 -2.7587520889937878e-03</internalNodes>
      <leafValues>
        -2.0798201858997345e-01 1.2463487684726715e-01</leafValues></_>
    <_>
      <internalNodes>
        0 -1 44400 -7.1882139891386032e-03</internalNodes>
      <leafValues>
        -3.5216342657804489e-02 6.4178389310836792e-01</leafValues></_>
    <_>
      <internalNodes>
        0 -1 51761 1.2928816722705960e-03</internalNodes>
      <leafValues>
        1.3419385254383087e-01 -1.9578617811203003e-01</leafValues></_>
    <_>
      <internalNodes>
        0 -1 39857 -1.1513540521264076e-02</internalNodes>
      <leafValues>
        -5.2324503660202026e-01 4.1390020400285721e-02</leafValues></_>
    <_>
      <internalNodes>
        0 -1 13319 -3.2705884426832199e-02</internalNodes>
      <leafValues>
        1.0096576809883118e-01 -2.5363525748252869e-01</leafValues></_>
    <_>
      <internalNodes>
        0 -1 28655 -2.0697375293821096e-03</internalNodes>
      <leafValues>
        -4.1112374514341354e-02 6.1870741844177246e-01</leafValues></_>
    <_>
      <internalNodes>
        0 -1 152671 -1.1238699080422521e-03</internalNodes>
      <leafValues>
        4.4591313600540161e-01 -5.1052026450634003e-02</leafValues></_>
    <_>
      <internalNodes>
        0 -1 27516 -1.1915521323680878e-01</internalNodes>
      <leafValues>
        -5.9724867343902588e-01 4.3110951781272888e-02</leafValues></_>
    <_>
      <internalNodes>
        0 -1 162302 9.3305408954620361e-03</internalNodes>
      <leafValues>
        4.6590328216552734e-02 -4.6161660552024841e-01</leafValues></_>
    <_>
      <internalNodes>
        0 -1 161969 -2.4671033024787903e-02</internalNodes>
      <leafValues>
        -6.5941119194030762e-01 3.8956996053457260e-02</leafValues></_>
    <_>
      <internalNodes>
        0 -1 3935 -1.3664792478084564e-01</internalNodes>
      <leafValues>
        -7.0790439844131470e-01 3.3309005200862885e-02</leafValues></_>
    <_>
      <internalNodes>
        0 -1 14421 -3.3431866904720664e-04</internalNodes>
      <leafValues>
        -2.3206269741058350e-01 1.0829541087150574e-01</leafValues></_>
    <_>
      <internalNodes>
        0 -1 60014 4.0056541562080383e-02</internalNodes>
      <leafValues>
        3.7304591387510300e-02 -6.2898641824722290e-01</leafValues></_>
    <_>
      <internalNodes>
        0 -1 11046 -2.5867877993732691e-03</internalNodes>
      <leafValues>
        3.3102643489837646e-01 -7.3093786835670471e-02</leafValues></_>
    <_>
      <internalNodes>
        0 -1 113808 8.0282014096155763e-04</internalNodes>
      <leafValues>
        1.4620603621006012e-01 -1.6705988347530365e-01</leafValues></_>
    <_>
      <internalNodes>
        0 -1 80221 1.7237210413441062e-03</internalNodes>
      <leafValues>
        1.4743585884571075e-01 -1.9141091406345367e-01</leafValues></_>
    <_>
      <internalNodes>
        0 -1 84025 -6.3565690070390701e-03</internalNodes>
      <leafValues>
        2.7093920111656189e-01 -9.4308033585548401e-02</leafValues></_>
    <_>
      <internalNodes>
        0 -1 115524 -4.4514349428936839e-04</internalNodes>
      <leafValues>
        -2.4511954188346863e-01 1.1144830286502838e-01</leafValues></_>
    <_>
      <internalNodes>
        0 -1 35455 -2.9729795642197132e-03</internalNodes>
      <leafValues>
        2.3063135147094727e-01 -1.3561227917671204e-01</leafValues></_>
    <_>
      <internalNodes>
        0 -1 154814 -4.5277113094925880e-03</internalNodes>
      <leafValues>
        -6.7427539825439453e-01 4.2663995176553726e-02</leafValues></_>
    <_>
      <internalNodes>
        0 -1 48976 -7.9003069549798965e-04</internalNodes>
      <leafValues>
        4.1802340745925903e-01 -7.3131136596202850e-02</leafValues></_>
    <_>
      <internalNodes>
        0 -1 157989 7.4199009686708450e-03</internalNodes>
      <leafValues>
        7.7083721756935120e-02 -3.2942292094230652e-01</leafValues></_>
    <_>
      <internalNodes>
        0 -1 126678 -2.9239239171147346e-02</internalNodes>
      <leafValues>
        8.2236325740814209e-01 -3.3282037824392319e-02</leafValues></_>
    <_>
      <internalNodes>
        0 -1 16714 -4.5654559507966042e-03</internalNodes>
      <leafValues>
        3.5098615288734436e-01 -6.2025822699069977e-02</leafValues></_>
    <_>
      <internalNodes>
        0 -1 149164 4.9062119796872139e-03</internalNodes>
      <leafValues>
        5.8626398444175720e-02 -4.6030765771865845e-01</leafValues></_>
    <_>
      <internalNodes>
        0 -1 150547 -1.9725620746612549e-02</internalNodes>
      <leafValues>
        5.1117575168609619e-01 -5.2307330071926117e-02</leafValues></_>
    <_>
      <internalNodes>
        0 -1 110039 1.3036080636084080e-03</internalNodes>
      <leafValues>
        1.3728015124797821e-01 -1.8189892172813416e-01</leafValues></_>
    <_>
      <internalNodes>
        0 -1 142405 4.6557909809052944e-03</internalNodes>
      <leafValues>
        -6.6660001873970032e-02 4.0382090210914612e-01</leafValues></_>
    <_>
      <internalNodes>
        0 -1 114094 2.6181002613157034e-04</internalNodes>
      <leafValues>
        1.2777051329612732e-01 -2.0885631442070007e-01</leafValues></_>
    <_>
      <internalNodes>
        0 -1 128007 3.2124470453709364e-03</internalNodes>
      <leafValues>
        -6.3003815710544586e-02 4.1578155755996704e-01</leafValues></_>
    <_>
      <internalNodes>
        0 -1 133719 -3.5997418308397755e-05</internalNodes>
      <leafValues>
        1.7498680949211121e-01 -1.4115872979164124e-01</leafValues></_>
    <_>
      <internalNodes>
        0 -1 116649 -4.0466836653649807e-03</internalNodes>
      <leafValues>
        -2.1334087848663330e-01 1.1425171047449112e-01</leafValues></_>
    <_>
      <internalNodes>
        0 -1 116156 -2.5528313592076302e-02</internalNodes>
      <leafValues>
        5.0437194108963013e-01 -5.6154936552047729e-02</leafValues></_>
    <_>
      <internalNodes>
        0 -1 52846 9.1522717848420143e-03</internalNodes>
      <leafValues>
        4.7354679554700851e-02 -5.4897940158843994e-01</leafValues></_>
    <_>
      <internalNodes>
        0 -1 141140 -1.0818509757518768e-01</internalNodes>
      <leafValues>
        6.0321930795907974e-02 -3.9636349678039551e-01</leafValues></_>
    <_>
      <internalNodes>
        0 -1 157074 -7.8907273709774017e-03</internalNodes>
      <leafValues>
        -4.1015720367431641e-01 6.4913615584373474e-02</leafValues></_>
    <_>
      <internalNodes>
        0 -1 151108 7.4935406446456909e-03</internalNodes>
      <leafValues>
        2.7522550895810127e-02 -8.2799571752548218e-01</leafValues></_>
    <_>
      <internalNodes>
        0 -1 86928 3.6122601479291916e-02</internalNodes>
      <leafValues>
        5.3912434726953506e-02 -4.5277911424636841e-01</leafValues></_>
    <_>
      <internalNodes>
        0 -1 154351 1.1339899897575378e-01</internalNodes>
      <leafValues>
        2.4012969806790352e-02 -1.</leafValues></_>
    <_>
      <internalNodes>
        0 -1 104525 -2.9438157798722386e-04</internalNodes>
      <leafValues>
        -1.9963714480400085e-01 1.1772841215133667e-01</leafValues></_>
    <_>
      <internalNodes>
        0 -1 104823 -1.9014163408428431e-03</internalNodes>
      <leafValues>
        3.1518450379371643e-01 -8.1385694444179535e-02</leafValues></_>
    <_>
      <internalNodes>
        0 -1 34481 -6.6618204116821289e-02</internalNodes>
      <leafValues>
        -2.5405254960060120e-01 1.0457199066877365e-01</leafValues></_>
    <_>
      <internalNodes>
        0 -1 29073 -1.2299250066280365e-01</internalNodes>
      <leafValues>
        2.9431638121604919e-01 -8.9224800467491150e-02</leafValues></_>
    <_>
      <internalNodes>
        0 -1 129783 2.2287026513367891e-04</internalNodes>
      <leafValues>
        9.2354610562324524e-02 -2.5837346911430359e-01</leafValues></_>
    <_>
      <internalNodes>
        0 -1 58621 -4.4367630034685135e-02</internalNodes>
      <leafValues>
        -5.9260714054107666e-01 4.3027829378843307e-02</leafValues></_>
    <_>
      <internalNodes>
        0 -1 154651 -5.0832913257181644e-03</internalNodes>
      <leafValues>
        6.4766401052474976e-01 -4.1509445756673813e-02</leafValues></_>
    <_>
      <internalNodes>
        0 -1 5968 -2.5418968871235847e-02</internalNodes>
      <leafValues>
        -4.5779016613960266e-01 5.3346451371908188e-02</leafValues></_>
    <_>
      <internalNodes>
        0 -1 13964 -5.6591369211673737e-02</internalNodes>
      <leafValues>
        3.6239942908287048e-01 -7.6580151915550232e-02</leafValues></_>
    <_>
      <internalNodes>
        0 -1 4420 6.5232510678470135e-03</internalNodes>
      <leafValues>
        -1.3363094627857208e-01 2.1979877352714539e-01</leafValues></_>
    <_>
      <internalNodes>
        0 -1 59867 -4.7024572268128395e-03</internalNodes>
      <leafValues>
        -3.6135408282279968e-01 7.3385581374168396e-02</leafValues></_>
    <_>
      <internalNodes>
        0 -1 133366 -2.3060215637087822e-02</internalNodes>
      <leafValues>
        4.8754742741584778e-01 -5.3062446415424347e-02</leafValues></_>
    <_>
      <internalNodes>
        0 -1 63097 7.9099591821432114e-03</internalNodes>
      <leafValues>
        1.3867436349391937e-01 -1.8731869757175446e-01</leafValues></_>
    <_>
      <internalNodes>
        0 -1 32841 -5.0220228731632233e-02</internalNodes>
      <leafValues>
        2.5600060820579529e-01 -1.1193686723709106e-01</leafValues></_>
    <_>
      <internalNodes>
        0 -1 11705 6.4664021134376526e-02</internalNodes>
      <leafValues>
        -3.8567788898944855e-02 5.7445931434631348e-01</leafValues></_>
    <_>
      <internalNodes>
        0 -1 42533 -6.5781474113464355e-02</internalNodes>
      <leafValues>
        6.3764744997024536e-01 -3.2509692013263702e-02</leafValues></_>
    <_>
      <internalNodes>
        0 -1 22045 -4.9299509264528751e-03</internalNodes>
      <leafValues>
        -1.5908765792846680e-01 1.8060359358787537e-01</leafValues></_>
    <_>
      <internalNodes>
        0 -1 79198 -5.1190666854381561e-02</internalNodes>
      <leafValues>
        -4.8175998032093048e-02 5.2456021308898926e-01</leafValues></_>
    <_>
      <internalNodes>
        0 -1 59733 -1.6650899779051542e-03</internalNodes>
      <leafValues>
        4.7047413885593414e-02 -6.5221375226974487e-01</leafValues></_>
    <_>
      <internalNodes>
        0 -1 145039 -3.7258467637002468e-03</internalNodes>
      <leafValues>
        -8.9607423543930054e-01 1.9309125840663910e-02</leafValues></_>
    <_>
      <internalNodes>
        0 -1 62631 -1.2539668381214142e-01</internalNodes>
      <leafValues>
        -7.5843143463134766e-01 2.4377474561333656e-02</leafValues></_>
    <_>
      <internalNodes>
        0 -1 134434 6.6842050291597843e-03</internalNodes>
      <leafValues>
        -4.1620984673500061e-02 6.6854602098464966e-01</leafValues></_>
    <_>
      <internalNodes>
        0 -1 73777 1.7965197912417352e-04</internalNodes>
      <leafValues>
        1.1679001152515411e-01 -2.0257802307605743e-01</leafValues></_></weakClassifiers></stage31>
</opencv_storage>
