<?xml version="1.0"?>
<opencv_storage>
<stage14>
  <maxWeakCount>55</maxWeakCount>
  <stageThreshold>-5.8532887697219849e-01</stageThreshold>
  <weakClassifiers>
    <_>
      <internalNodes>
        0 -1 106534 1.3109881430864334e-02</internalNodes>
      <leafValues>
        4.4273504614830017e-01 8.5631066560745239e-01</leafValues></_>
    <_>
      <internalNodes>
        0 -1 14525 2.0259559154510498e-02</internalNodes>
      <leafValues>
        -2.7144094929099083e-02 7.1346896886825562e-01</leafValues></_>
    <_>
      <internalNodes>
        0 -1 159533 1.3446109369397163e-02</internalNodes>
      <leafValues>
        -1.3341493904590607e-01 4.8918220400810242e-01</leafValues></_>
    <_>
      <internalNodes>
        0 -1 107433 5.2292004693299532e-04</internalNodes>
      <leafValues>
        9.8321244120597839e-02 -4.4713148474693298e-01</leafValues></_>
    <_>
      <internalNodes>
        0 -1 37465 1.3451681006699800e-03</internalNodes>
      <leafValues>
        -1.2398503720760345e-01 4.1057783365249634e-01</leafValues></_>
    <_>
      <internalNodes>
        0 -1 151177 -2.0957153290510178e-02</internalNodes>
      <leafValues>
        9.6254456043243408e-01 -5.5144231766462326e-02</leafValues></_>
    <_>
      <internalNodes>
        0 -1 70293 -6.9492794573307037e-02</internalNodes>
      <leafValues>
        -4.2903634905815125e-01 1.2368661910295486e-01</leafValues></_>
    <_>
      <internalNodes>
        0 -1 139647 3.7308160681277514e-03</internalNodes>
      <leafValues>
        6.4735159277915955e-02 -6.5634995698928833e-01</leafValues></_>
    <_>
      <internalNodes>
        0 -1 135635 -1.7232593148946762e-02</internalNodes>
      <leafValues>
        3.6573234200477600e-01 -1.2526457011699677e-01</leafValues></_>
    <_>
      <internalNodes>
        0 -1 143242 -1.2338669970631599e-02</internalNodes>
      <leafValues>
        5.5541354417800903e-01 -8.1106543540954590e-02</leafValues></_>
    <_>
      <internalNodes>
        0 -1 20305 -7.7515291050076485e-03</internalNodes>
      <leafValues>
        3.4997993707656860e-01 -1.2006282806396484e-01</leafValues></_>
    <_>
      <internalNodes>
        0 -1 1475 9.6937045454978943e-02</internalNodes>
      <leafValues>
        -1.5110641717910767e-01 4.0327608585357666e-01</leafValues></_>
    <_>
      <internalNodes>
        0 -1 114222 5.7246638461947441e-03</internalNodes>
      <leafValues>
        -1.1046002060174942e-01 3.6824342608451843e-01</leafValues></_>
    <_>
      <internalNodes>
        0 -1 146214 2.2574655304197222e-04</internalNodes>
      <leafValues>
        1.6484381258487701e-01 -2.4416399002075195e-01</leafValues></_>
    <_>
      <internalNodes>
        0 -1 68421 1.6233567148447037e-02</internalNodes>
      <leafValues>
        -7.4851565062999725e-02 5.2027094364166260e-01</leafValues></_>
    <_>
      <internalNodes>
        0 -1 89441 5.1942039281129837e-03</internalNodes>
      <leafValues>
        6.6667005419731140e-02 -6.6104805469512939e-01</leafValues></_>
    <_>
      <internalNodes>
        0 -1 24415 3.6077499389648438e-03</internalNodes>
      <leafValues>
        -8.2318946719169617e-02 5.2149552106857300e-01</leafValues></_>
    <_>
      <internalNodes>
        0 -1 103632 5.4437564685940742e-03</internalNodes>
      <leafValues>
        -7.3257192969322205e-02 4.8883122205734253e-01</leafValues></_>
    <_>
      <internalNodes>
        0 -1 123254 4.0439341217279434e-02</internalNodes>
      <leafValues>
        -1.0948946326971054e-01 3.6370036005973816e-01</leafValues></_>
    <_>
      <internalNodes>
        0 -1 134104 -7.6504081487655640e-02</internalNodes>
      <leafValues>
        3.4830096364021301e-01 -1.5398351848125458e-01</leafValues></_>
    <_>
      <internalNodes>
        0 -1 48764 -5.2439346909523010e-03</internalNodes>
      <leafValues>
        4.0583622455596924e-01 -1.0550253093242645e-01</leafValues></_>
    <_>
      <internalNodes>
        0 -1 3359 -2.8314445167779922e-02</internalNodes>
      <leafValues>
        3.8032367825508118e-01 -1.0744991898536682e-01</leafValues></_>
    <_>
      <internalNodes>
        0 -1 65513 -4.9435954540967941e-02</internalNodes>
      <leafValues>
        3.4780064225196838e-01 -1.2202780693769455e-01</leafValues></_>
    <_>
      <internalNodes>
        0 -1 99957 3.3445926383137703e-03</internalNodes>
      <leafValues>
        6.3682779669761658e-02 -7.1814179420471191e-01</leafValues></_>
    <_>
      <internalNodes>
        0 -1 97721 -2.1773759275674820e-02</internalNodes>
      <leafValues>
        7.7544873952865601e-01 -6.3921697437763214e-02</leafValues></_>
    <_>
      <internalNodes>
        0 -1 25564 -2.2177793085575104e-02</internalNodes>
      <leafValues>
        -3.8101768493652344e-01 1.2463833391666412e-01</leafValues></_>
    <_>
      <internalNodes>
        0 -1 109396 -2.7474896050989628e-03</internalNodes>
      <leafValues>
        2.3719432950019836e-01 -1.8871173262596130e-01</leafValues></_>
    <_>
      <internalNodes>
        0 -1 116820 -4.1495949029922485e-02</internalNodes>
      <leafValues>
        -3.3523920178413391e-01 1.4125011861324310e-01</leafValues></_>
    <_>
      <internalNodes>
        0 -1 69390 -1.6705913003534079e-03</internalNodes>
      <leafValues>
        2.1799090504646301e-01 -2.0145720243453979e-01</leafValues></_>
    <_>
      <internalNodes>
        0 -1 159485 3.1958715990185738e-03</internalNodes>
      <leafValues>
        7.0005483925342560e-02 -6.1603111028671265e-01</leafValues></_>
    <_>
      <internalNodes>
        0 -1 12601 6.5418221056461334e-03</internalNodes>
      <leafValues>
        -1.4254654943943024e-01 3.0454951524734497e-01</leafValues></_>
    <_>
      <internalNodes>
        0 -1 51268 1.2241248972713947e-02</internalNodes>
      <leafValues>
        7.3554873466491699e-02 -5.8540380001068115e-01</leafValues></_>
    <_>
      <internalNodes>
        0 -1 23752 -4.1852421127259731e-03</internalNodes>
      <leafValues>
        -5.6542450189590454e-01 5.9025820344686508e-02</leafValues></_>
    <_>
      <internalNodes>
        0 -1 110632 -1.8015731126070023e-02</internalNodes>
      <leafValues>
        9.0011495351791382e-01 -4.6338506042957306e-02</leafValues></_>
    <_>
      <internalNodes>
        0 -1 104868 -8.0705936998128891e-03</internalNodes>
      <leafValues>
        4.1552662849426270e-01 -8.3105891942977905e-02</leafValues></_>
    <_>
      <internalNodes>
        0 -1 83404 1.0890118777751923e-02</internalNodes>
      <leafValues>
        -7.6621361076831818e-02 4.4613638520240784e-01</leafValues></_>
    <_>
      <internalNodes>
        0 -1 125798 4.6744520659558475e-05</internalNodes>
      <leafValues>
        -1.8572309613227844e-01 1.9220012426376343e-01</leafValues></_>
    <_>
      <internalNodes>
        0 -1 49802 1.1496571823954582e-02</internalNodes>
      <leafValues>
        -6.8505503237247467e-02 5.2650499343872070e-01</leafValues></_>
    <_>
      <internalNodes>
        0 -1 37128 1.0834010317921638e-02</internalNodes>
      <leafValues>
        6.4361877739429474e-02 -6.5631598234176636e-01</leafValues></_>
    <_>
      <internalNodes>
        0 -1 47060 3.1589600257575512e-03</internalNodes>
      <leafValues>
        -9.0916372835636139e-02 4.5237147808074951e-01</leafValues></_>
    <_>
      <internalNodes>
        0 -1 139652 -3.7805913016200066e-03</internalNodes>
      <leafValues>
        -5.7950687408447266e-01 7.1252614259719849e-02</leafValues></_>
    <_>
      <internalNodes>
        0 -1 140359 1.7628772184252739e-04</internalNodes>
      <leafValues>
        1.3697180151939392e-01 -2.6896101236343384e-01</leafValues></_>
    <_>
      <internalNodes>
        0 -1 145695 -6.3220532611012459e-03</internalNodes>
      <leafValues>
        5.0346410274505615e-01 -8.4710687398910522e-02</leafValues></_>
    <_>
      <internalNodes>
        0 -1 82095 -4.8070415854454041e-02</internalNodes>
      <leafValues>
        5.8446323871612549e-01 -5.8782789856195450e-02</leafValues></_>
    <_>
      <internalNodes>
        0 -1 111437 9.1312536969780922e-03</internalNodes>
      <leafValues>
        -4.5621566474437714e-02 6.9063568115234375e-01</leafValues></_>
    <_>
      <internalNodes>
        0 -1 148237 -2.7932529337704182e-03</internalNodes>
      <leafValues>
        -7.7417403459548950e-01 5.6010618805885315e-02</leafValues></_>
    <_>
      <internalNodes>
        0 -1 159438 -3.5951077006757259e-03</internalNodes>
      <leafValues>
        6.3894242048263550e-01 -6.5182834863662720e-02</leafValues></_>
    <_>
      <internalNodes>
        0 -1 108098 -1.4893568586558104e-03</internalNodes>
      <leafValues>
        -2.5396305322647095e-01 1.5592554211616516e-01</leafValues></_>
    <_>
      <internalNodes>
        0 -1 30856 1.6686879098415375e-02</internalNodes>
      <leafValues>
        6.1894614249467850e-02 -6.0758763551712036e-01</leafValues></_>
    <_>
      <internalNodes>
        0 -1 38330 1.5667784959077835e-02</internalNodes>
      <leafValues>
        -1.3081672787666321e-01 2.9230168461799622e-01</leafValues></_>
    <_>
      <internalNodes>
        0 -1 26100 -2.5263518095016479e-02</internalNodes>
      <leafValues>
        3.0169960856437683e-01 -1.4060068130493164e-01</leafValues></_>
    <_>
      <internalNodes>
        0 -1 70756 -8.5413623601198196e-03</internalNodes>
      <leafValues>
        -6.7876207828521729e-01 6.0123089700937271e-02</leafValues></_>
    <_>
      <internalNodes>
        0 -1 155791 -1.2529096566140652e-03</internalNodes>
      <leafValues>
        6.5437513589859009e-01 -6.1954084783792496e-02</leafValues></_>
    <_>
      <internalNodes>
        0 -1 28784 1.7983244732022285e-02</internalNodes>
      <leafValues>
        -1.1603555083274841e-01 3.1073582172393799e-01</leafValues></_>
    <_>
      <internalNodes>
        0 -1 11571 -4.0979176992550492e-04</internalNodes>
      <leafValues>
        2.1515733003616333e-01 -1.8279626965522766e-01</leafValues></_></weakClassifiers></stage14>
</opencv_storage>
